#pragma once

#include <Arduino.h>
#include <stdarg.h>
namespace Eloquent {
    namespace ML {
        namespace Port {
            class RandomForest {
                public:
                    /**
                    * Predict class for features vector
                    */
                    int predict(float *x) {
                        uint8_t votes[7] = { 0 };
                        // tree #1
                        if (x[9] <= 0.1396111249923706) {
                            if (x[4] <= -0.37021084129810333) {
                                if (x[10] <= 1.083999995898921e-05) {
                                    votes[3] += 1;
                                }

                                else {
                                    votes[2] += 1;
                                }
                            }

                            else {
                                if (x[10] <= 7.080000159476185e-06) {
                                    votes[6] += 1;
                                }

                                else {
                                    if (x[0] <= 24.598562240600586) {
                                        if (x[5] <= 0.015978580224327743) {
                                            if (x[10] <= 9.399999726156238e-06) {
                                                votes[0] += 1;
                                            }

                                            else {
                                                votes[1] += 1;
                                            }
                                        }

                                        else {
                                            if (x[9] <= -0.0014153200900182128) {
                                                if (x[12] <= 0.03062321897596121) {
                                                    votes[0] += 1;
                                                }

                                                else {
                                                    votes[4] += 1;
                                                }
                                            }

                                            else {
                                                if (x[4] <= -0.26347871124744415) {
                                                    votes[3] += 1;
                                                }

                                                else {
                                                    if (x[3] <= 0.044377281330525875) {
                                                        votes[4] += 1;
                                                    }

                                                    else {
                                                        votes[1] += 1;
                                                    }
                                                }
                                            }
                                        }
                                    }

                                    else {
                                        if (x[2] <= 0.09112977981567383) {
                                            if (x[2] <= -0.3284078389406204) {
                                                if (x[1] <= -0.38091032207012177) {
                                                    votes[1] += 1;
                                                }

                                                else {
                                                    votes[5] += 1;
                                                }
                                            }

                                            else {
                                                votes[4] += 1;
                                            }
                                        }

                                        else {
                                            if (x[3] <= 0.16920974478125572) {
                                                votes[4] += 1;
                                            }

                                            else {
                                                votes[5] += 1;
                                            }
                                        }
                                    }
                                }
                            }
                        }

                        else {
                            if (x[2] <= -0.8698703348636627) {
                                votes[0] += 1;
                            }

                            else {
                                if (x[3] <= 0.030347359366714954) {
                                    if (x[11] <= -0.21382953971624374) {
                                        votes[0] += 1;
                                    }

                                    else {
                                        if (x[3] <= 0.004923339933156967) {
                                            votes[2] += 1;
                                        }

                                        else {
                                            votes[4] += 1;
                                        }
                                    }
                                }

                                else {
                                    votes[1] += 1;
                                }
                            }
                        }

                        // tree #2
                        if (x[4] <= -0.33440737426280975) {
                            if (x[5] <= -0.004373739822767675) {
                                if (x[4] <= -0.5186034440994263) {
                                    if (x[10] <= 1.159999965238967e-05) {
                                        votes[3] += 1;
                                    }

                                    else {
                                        votes[2] += 1;
                                    }
                                }

                                else {
                                    if (x[2] <= -0.3557920753955841) {
                                        if (x[10] <= 9.419999969395576e-06) {
                                            if (x[9] <= 0.06816853769123554) {
                                                if (x[6] <= -0.14287200197577477) {
                                                    votes[0] += 1;
                                                }

                                                else {
                                                    votes[3] += 1;
                                                }
                                            }

                                            else {
                                                votes[0] += 1;
                                            }
                                        }

                                        else {
                                            votes[3] += 1;
                                        }
                                    }

                                    else {
                                        votes[3] += 1;
                                    }
                                }
                            }

                            else {
                                votes[2] += 1;
                            }
                        }

                        else {
                            if (x[11] <= -0.11720919981598854) {
                                if (x[7] <= 0.05071679875254631) {
                                    if (x[4] <= 0.19112583622336388) {
                                        if (x[1] <= -0.9292905628681183) {
                                            votes[0] += 1;
                                        }

                                        else {
                                            votes[1] += 1;
                                        }
                                    }

                                    else {
                                        votes[5] += 1;
                                    }
                                }

                                else {
                                    if (x[1] <= -0.36936524510383606) {
                                        votes[0] += 1;
                                    }

                                    else {
                                        votes[5] += 1;
                                    }
                                }
                            }

                            else {
                                if (x[1] <= -0.5733263492584229) {
                                    if (x[0] <= 16.113173961639404) {
                                        votes[6] += 1;
                                    }

                                    else {
                                        if (x[2] <= -0.6472718417644501) {
                                            votes[0] += 1;
                                        }

                                        else {
                                            if (x[5] <= 0.04436581954360008) {
                                                votes[1] += 1;
                                            }

                                            else {
                                                if (x[0] <= 16.995522499084473) {
                                                    votes[4] += 1;
                                                }

                                                else {
                                                    if (x[11] <= -0.02616962045431137) {
                                                        votes[1] += 1;
                                                    }

                                                    else {
                                                        votes[3] += 1;
                                                    }
                                                }
                                            }
                                        }
                                    }
                                }

                                else {
                                    if (x[2] <= 0.0945139229297638) {
                                        if (x[6] <= -0.1879776418209076) {
                                            votes[1] += 1;
                                        }

                                        else {
                                            if (x[3] <= 0.1403806209564209) {
                                                if (x[0] <= 22.062222480773926) {
                                                    if (x[7] <= 0.042471399530768394) {
                                                        votes[0] += 1;
                                                    }

                                                    else {
                                                        votes[4] += 1;
                                                    }
                                                }

                                                else {
                                                    votes[4] += 1;
                                                }
                                            }

                                            else {
                                                if (x[2] <= -0.08599313907325268) {
                                                    if (x[11] <= -0.007694259751588106) {
                                                        votes[1] += 1;
                                                    }

                                                    else {
                                                        votes[0] += 1;
                                                    }
                                                }

                                                else {
                                                    votes[4] += 1;
                                                }
                                            }
                                        }
                                    }

                                    else {
                                        if (x[11] <= -0.00024164002388715744) {
                                            if (x[3] <= 0.09842462465167046) {
                                                votes[4] += 1;
                                            }

                                            else {
                                                votes[5] += 1;
                                            }
                                        }

                                        else {
                                            votes[1] += 1;
                                        }
                                    }
                                }
                            }
                        }

                        // tree #3
                        if (x[10] <= 1.1220000033063116e-05) {
                            if (x[5] <= -0.10844976082444191) {
                                if (x[9] <= 0.07148659974336624) {
                                    if (x[0] <= 26.17959499359131) {
                                        votes[3] += 1;
                                    }

                                    else {
                                        votes[5] += 1;
                                    }
                                }

                                else {
                                    if (x[12] <= -0.010141520295292139) {
                                        if (x[0] <= 23.353158950805664) {
                                            votes[0] += 1;
                                        }

                                        else {
                                            votes[1] += 1;
                                        }
                                    }

                                    else {
                                        votes[0] += 1;
                                    }
                                }
                            }

                            else {
                                if (x[8] <= 0.012305520009249449) {
                                    if (x[6] <= -0.17987489700317383) {
                                        if (x[9] <= 0.024592380039393902) {
                                            votes[5] += 1;
                                        }

                                        else {
                                            if (x[11] <= -0.12046068161725998) {
                                                if (x[7] <= 0.01157853938639164) {
                                                    votes[1] += 1;
                                                }

                                                else {
                                                    if (x[1] <= -0.5400853306055069) {
                                                        votes[0] += 1;
                                                    }

                                                    else {
                                                        votes[5] += 1;
                                                    }
                                                }
                                            }

                                            else {
                                                votes[1] += 1;
                                            }
                                        }
                                    }

                                    else {
                                        if (x[4] <= -0.23157931864261627) {
                                            if (x[4] <= -0.34373973309993744) {
                                                if (x[1] <= -0.5567715764045715) {
                                                    if (x[5] <= -0.04231547936797142) {
                                                        votes[0] += 1;
                                                    }

                                                    else {
                                                        if (x[12] <= 0.028536619618535042) {
                                                            votes[2] += 1;
                                                        }

                                                        else {
                                                            votes[3] += 1;
                                                        }
                                                    }
                                                }

                                                else {
                                                    votes[3] += 1;
                                                }
                                            }

                                            else {
                                                if (x[8] <= -0.04986307863146067) {
                                                    votes[4] += 1;
                                                }

                                                else {
                                                    votes[1] += 1;
                                                }
                                            }
                                        }

                                        else {
                                            if (x[1] <= -0.726329118013382) {
                                                if (x[10] <= 6.799999937356915e-06) {
                                                    votes[6] += 1;
                                                }

                                                else {
                                                    votes[1] += 1;
                                                }
                                            }

                                            else {
                                                if (x[2] <= 0.2558372765779495) {
                                                    if (x[10] <= 7.3999999585794285e-06) {
                                                        if (x[7] <= 0.01790575939230621) {
                                                            votes[0] += 1;
                                                        }

                                                        else {
                                                            votes[4] += 1;
                                                        }
                                                    }

                                                    else {
                                                        votes[4] += 1;
                                                    }
                                                }

                                                else {
                                                    votes[5] += 1;
                                                }
                                            }
                                        }
                                    }
                                }

                                else {
                                    if (x[9] <= 0.12267538532614708) {
                                        if (x[2] <= -0.3769087493419647) {
                                            votes[6] += 1;
                                        }

                                        else {
                                            if (x[0] <= 24.912424087524414) {
                                                votes[3] += 1;
                                            }

                                            else {
                                                votes[4] += 1;
                                            }
                                        }
                                    }

                                    else {
                                        if (x[7] <= 0.02290115963842254) {
                                            votes[0] += 1;
                                        }

                                        else {
                                            votes[5] += 1;
                                        }
                                    }
                                }
                            }
                        }

                        else {
                            if (x[7] <= 0.006300119683146477) {
                                votes[2] += 1;
                            }

                            else {
                                votes[0] += 1;
                            }
                        }

                        // tree #4
                        if (x[4] <= -0.3384264409542084) {
                            if (x[10] <= 1.0859999747481197e-05) {
                                if (x[10] <= 7.74000000092201e-06) {
                                    votes[2] += 1;
                                }

                                else {
                                    if (x[2] <= -0.4383915066719055) {
                                        votes[0] += 1;
                                    }

                                    else {
                                        votes[3] += 1;
                                    }
                                }
                            }

                            else {
                                votes[2] += 1;
                            }
                        }

                        else {
                            if (x[11] <= -0.11243560165166855) {
                                if (x[3] <= -0.035153720527887344) {
                                    if (x[2] <= -0.18403196334838867) {
                                        votes[0] += 1;
                                    }

                                    else {
                                        votes[4] += 1;
                                    }
                                }

                                else {
                                    if (x[10] <= 1.0400000064691994e-05) {
                                        votes[1] += 1;
                                    }

                                    else {
                                        if (x[4] <= -0.05146360024809837) {
                                            votes[0] += 1;
                                        }

                                        else {
                                            votes[1] += 1;
                                        }
                                    }
                                }
                            }

                            else {
                                if (x[7] <= 0.08473014086484909) {
                                    if (x[1] <= -0.1201782189309597) {
                                        if (x[10] <= 7.2599998475197935e-06) {
                                            if (x[9] <= 0.007258800324052572) {
                                                votes[4] += 1;
                                            }

                                            else {
                                                if (x[1] <= -0.7245700061321259) {
                                                    votes[6] += 1;
                                                }

                                                else {
                                                    votes[2] += 1;
                                                }
                                            }
                                        }

                                        else {
                                            if (x[3] <= 0.0963628813624382) {
                                                if (x[2] <= -0.4342966377735138) {
                                                    votes[1] += 1;
                                                }

                                                else {
                                                    if (x[5] <= -0.11946753785014153) {
                                                        votes[0] += 1;
                                                    }

                                                    else {
                                                        votes[4] += 1;
                                                    }
                                                }
                                            }

                                            else {
                                                if (x[0] <= 24.644774436950684) {
                                                    votes[1] += 1;
                                                }

                                                else {
                                                    if (x[2] <= -0.15093528106808662) {
                                                        votes[1] += 1;
                                                    }

                                                    else {
                                                        if (x[0] <= 25.022783279418945) {
                                                            votes[4] += 1;
                                                        }

                                                        else {
                                                            votes[5] += 1;
                                                        }
                                                    }
                                                }
                                            }
                                        }
                                    }

                                    else {
                                        if (x[2] <= 0.08258987963199615) {
                                            votes[4] += 1;
                                        }

                                        else {
                                            if (x[9] <= 0.07631583884358406) {
                                                if (x[10] <= 9.979999958886765e-06) {
                                                    votes[1] += 1;
                                                }

                                                else {
                                                    votes[5] += 1;
                                                }
                                            }

                                            else {
                                                votes[4] += 1;
                                            }
                                        }
                                    }
                                }

                                else {
                                    if (x[0] <= 16.3712420463562) {
                                        votes[6] += 1;
                                    }

                                    else {
                                        if (x[6] <= -0.02812200039625168) {
                                            votes[1] += 1;
                                        }

                                        else {
                                            if (x[2] <= 0.02284989506006241) {
                                                votes[0] += 1;
                                            }

                                            else {
                                                votes[5] += 1;
                                            }
                                        }
                                    }
                                }
                            }
                        }

                        // tree #5
                        if (x[4] <= -0.37021084129810333) {
                            if (x[0] <= 25.938626289367676) {
                                if (x[11] <= -0.0743325799703598) {
                                    votes[0] += 1;
                                }

                                else {
                                    votes[3] += 1;
                                }
                            }

                            else {
                                votes[2] += 1;
                            }
                        }

                        else {
                            if (x[2] <= -0.6281839311122894) {
                                votes[0] += 1;
                            }

                            else {
                                if (x[8] <= 0.011375539936125278) {
                                    if (x[5] <= -0.06424258090555668) {
                                        if (x[1] <= -0.26695868372917175) {
                                            votes[1] += 1;
                                        }

                                        else {
                                            if (x[6] <= -0.17741850018501282) {
                                                votes[1] += 1;
                                            }

                                            else {
                                                votes[4] += 1;
                                            }
                                        }
                                    }

                                    else {
                                        if (x[1] <= -0.29682767391204834) {
                                            if (x[3] <= 0.13206107914447784) {
                                                if (x[8] <= -0.022732860408723354) {
                                                    if (x[0] <= 20.338284492492676) {
                                                        votes[4] += 1;
                                                    }

                                                    else {
                                                        votes[0] += 1;
                                                    }
                                                }

                                                else {
                                                    if (x[0] <= 16.490724563598633) {
                                                        votes[6] += 1;
                                                    }

                                                    else {
                                                        votes[3] += 1;
                                                    }
                                                }
                                            }

                                            else {
                                                if (x[10] <= 9.399999726156238e-06) {
                                                    if (x[10] <= 8.319999778905185e-06) {
                                                        if (x[7] <= 0.06407580152153969) {
                                                            if (x[11] <= -0.048203760758042336) {
                                                                votes[2] += 1;
                                                            }

                                                            else {
                                                                votes[1] += 1;
                                                            }
                                                        }

                                                        else {
                                                            votes[6] += 1;
                                                        }
                                                    }

                                                    else {
                                                        votes[0] += 1;
                                                    }
                                                }

                                                else {
                                                    votes[1] += 1;
                                                }
                                            }
                                        }

                                        else {
                                            if (x[2] <= 0.1091715432703495) {
                                                if (x[5] <= 0.036983439698815346) {
                                                    votes[4] += 1;
                                                }

                                                else {
                                                    votes[5] += 1;
                                                }
                                            }

                                            else {
                                                if (x[11] <= -0.07631310075521469) {
                                                    votes[4] += 1;
                                                }

                                                else {
                                                    votes[5] += 1;
                                                }
                                            }
                                        }
                                    }
                                }

                                else {
                                    if (x[2] <= -0.061064302921295166) {
                                        if (x[8] <= 0.013916279654949903) {
                                            if (x[5] <= 0.15701422095298767) {
                                                votes[1] += 1;
                                            }

                                            else {
                                                votes[6] += 1;
                                            }
                                        }

                                        else {
                                            votes[6] += 1;
                                        }
                                    }

                                    else {
                                        votes[5] += 1;
                                    }
                                }
                            }
                        }

                        // tree #6
                        if (x[2] <= -0.6667615473270416) {
                            if (x[3] <= -0.05360522121191025) {
                                votes[0] += 1;
                            }

                            else {
                                votes[1] += 1;
                            }
                        }

                        else {
                            if (x[8] <= -0.019079620018601418) {
                                if (x[7] <= 0.08922810107469559) {
                                    if (x[3] <= 0.18788500130176544) {
                                        if (x[9] <= 0.0895785391330719) {
                                            votes[4] += 1;
                                        }

                                        else {
                                            if (x[11] <= -0.10123023763298988) {
                                                if (x[9] <= 0.15517882257699966) {
                                                    votes[4] += 1;
                                                }

                                                else {
                                                    votes[1] += 1;
                                                }
                                            }

                                            else {
                                                votes[1] += 1;
                                            }
                                        }
                                    }

                                    else {
                                        if (x[9] <= 0.032529679127037525) {
                                            if (x[5] <= 0.0036711199209094048) {
                                                if (x[9] <= -0.015489500481635332) {
                                                    votes[1] += 1;
                                                }

                                                else {
                                                    votes[5] += 1;
                                                }
                                            }

                                            else {
                                                if (x[9] <= -0.03566664084792137) {
                                                    votes[6] += 1;
                                                }

                                                else {
                                                    if (x[7] <= 0.0015964801423251629) {
                                                        votes[0] += 1;
                                                    }

                                                    else {
                                                        votes[1] += 1;
                                                    }
                                                }
                                            }
                                        }

                                        else {
                                            if (x[1] <= -0.23151776939630508) {
                                                votes[1] += 1;
                                            }

                                            else {
                                                if (x[7] <= 0.02253493946045637) {
                                                    votes[4] += 1;
                                                }

                                                else {
                                                    votes[5] += 1;
                                                }
                                            }
                                        }
                                    }
                                }

                                else {
                                    if (x[0] <= 23.432809829711914) {
                                        if (x[3] <= 0.18351253867149353) {
                                            votes[1] += 1;
                                        }

                                        else {
                                            votes[3] += 1;
                                        }
                                    }

                                    else {
                                        votes[3] += 1;
                                    }
                                }
                            }

                            else {
                                if (x[0] <= 25.720579147338867) {
                                    if (x[10] <= 6.960000064282212e-06) {
                                        votes[6] += 1;
                                    }

                                    else {
                                        if (x[7] <= 0.10540353879332542) {
                                            if (x[6] <= -0.0342690609395504) {
                                                if (x[7] <= 0.0041703799506649375) {
                                                    votes[4] += 1;
                                                }

                                                else {
                                                    if (x[1] <= -0.141750393435359) {
                                                        votes[1] += 1;
                                                    }

                                                    else {
                                                        votes[3] += 1;
                                                    }
                                                }
                                            }

                                            else {
                                                if (x[5] <= 0.14819926023483276) {
                                                    votes[2] += 1;
                                                }

                                                else {
                                                    votes[0] += 1;
                                                }
                                            }
                                        }

                                        else {
                                            votes[3] += 1;
                                        }
                                    }
                                }

                                else {
                                    if (x[2] <= -0.027548201382160187) {
                                        votes[2] += 1;
                                    }

                                    else {
                                        votes[4] += 1;
                                    }
                                }
                            }
                        }

                        // tree #7
                        if (x[2] <= -0.647673636674881) {
                            votes[0] += 1;
                        }

                        else {
                            if (x[4] <= -0.34373973309993744) {
                                if (x[0] <= 26.63379955291748) {
                                    if (x[0] <= 22.73513698577881) {
                                        if (x[10] <= 8.239999715442536e-06) {
                                            votes[2] += 1;
                                        }

                                        else {
                                            votes[0] += 1;
                                        }
                                    }

                                    else {
                                        votes[3] += 1;
                                    }
                                }

                                else {
                                    votes[2] += 1;
                                }
                            }

                            else {
                                if (x[7] <= 0.06031976081430912) {
                                    if (x[6] <= -0.22533681988716125) {
                                        if (x[0] <= 25.98400592803955) {
                                            votes[1] += 1;
                                        }

                                        else {
                                            votes[5] += 1;
                                        }
                                    }

                                    else {
                                        if (x[4] <= -0.23157931864261627) {
                                            if (x[1] <= -0.47412313520908356) {
                                                if (x[8] <= -0.02856111992150545) {
                                                    votes[4] += 1;
                                                }

                                                else {
                                                    if (x[9] <= 0.016429280396550894) {
                                                        votes[1] += 1;
                                                    }

                                                    else {
                                                        votes[2] += 1;
                                                    }
                                                }
                                            }

                                            else {
                                                if (x[7] <= -0.022359300404787064) {
                                                    votes[5] += 1;
                                                }

                                                else {
                                                    if (x[12] <= -0.02318979986011982) {
                                                        votes[5] += 1;
                                                    }

                                                    else {
                                                        votes[1] += 1;
                                                    }
                                                }
                                            }
                                        }

                                        else {
                                            if (x[2] <= 0.09112977981567383) {
                                                if (x[12] <= -0.006723619997501373) {
                                                    if (x[3] <= 0.11440568417310715) {
                                                        votes[1] += 1;
                                                    }

                                                    else {
                                                        votes[6] += 1;
                                                    }
                                                }

                                                else {
                                                    if (x[11] <= 0.025611359626054764) {
                                                        votes[4] += 1;
                                                    }

                                                    else {
                                                        votes[0] += 1;
                                                    }
                                                }
                                            }

                                            else {
                                                if (x[1] <= 0.2686324417591095) {
                                                    votes[5] += 1;
                                                }

                                                else {
                                                    votes[4] += 1;
                                                }
                                            }
                                        }
                                    }
                                }

                                else {
                                    if (x[10] <= 6.9800000801478745e-06) {
                                        votes[6] += 1;
                                    }

                                    else {
                                        if (x[4] <= -0.20390883833169937) {
                                            votes[1] += 1;
                                        }

                                        else {
                                            if (x[6] <= -0.20145537704229355) {
                                                votes[5] += 1;
                                            }

                                            else {
                                                votes[0] += 1;
                                            }
                                        }
                                    }
                                }
                            }
                        }

                        // tree #8
                        if (x[4] <= -0.34373973309993744) {
                            if (x[7] <= 0.05664309859275818) {
                                votes[2] += 1;
                            }

                            else {
                                if (x[10] <= 9.379999937664252e-06) {
                                    if (x[11] <= -0.06179671920835972) {
                                        votes[0] += 1;
                                    }

                                    else {
                                        votes[3] += 1;
                                    }
                                }

                                else {
                                    votes[3] += 1;
                                }
                            }
                        }

                        else {
                            if (x[2] <= -0.6916370093822479) {
                                if (x[8] <= -0.10771680250763893) {
                                    if (x[3] <= -0.045382097363471985) {
                                        votes[0] += 1;
                                    }

                                    else {
                                        votes[1] += 1;
                                    }
                                }

                                else {
                                    votes[0] += 1;
                                }
                            }

                            else {
                                if (x[0] <= 16.299636840820312) {
                                    votes[6] += 1;
                                }

                                else {
                                    if (x[3] <= 0.18788500130176544) {
                                        if (x[1] <= -0.12052541971206665) {
                                            if (x[9] <= 0.12396756187081337) {
                                                if (x[5] <= -0.027990001253783703) {
                                                    if (x[10] <= 9.440000212634914e-06) {
                                                        votes[0] += 1;
                                                    }

                                                    else {
                                                        if (x[12] <= 0.004228560253977776) {
                                                            votes[4] += 1;
                                                        }

                                                        else {
                                                            votes[1] += 1;
                                                        }
                                                    }
                                                }

                                                else {
                                                    if (x[2] <= -0.48896199464797974) {
                                                        votes[1] += 1;
                                                    }

                                                    else {
                                                        if (x[4] <= -0.2521126866340637) {
                                                            votes[3] += 1;
                                                        }

                                                        else {
                                                            votes[4] += 1;
                                                        }
                                                    }
                                                }
                                            }

                                            else {
                                                votes[5] += 1;
                                            }
                                        }

                                        else {
                                            votes[4] += 1;
                                        }
                                    }

                                    else {
                                        if (x[8] <= 0.019983680453151464) {
                                            if (x[5] <= 0.061792860738933086) {
                                                if (x[1] <= -0.0390390008687973) {
                                                    votes[1] += 1;
                                                }

                                                else {
                                                    if (x[5] <= -0.08641513995826244) {
                                                        votes[1] += 1;
                                                    }

                                                    else {
                                                        votes[5] += 1;
                                                    }
                                                }
                                            }

                                            else {
                                                votes[0] += 1;
                                            }
                                        }

                                        else {
                                            votes[5] += 1;
                                        }
                                    }
                                }
                            }
                        }

                        // tree #9
                        if (x[10] <= 1.1279999853286427e-05) {
                            if (x[5] <= -0.12286774069070816) {
                                if (x[11] <= -0.11838370189070702) {
                                    votes[0] += 1;
                                }

                                else {
                                    votes[3] += 1;
                                }
                            }

                            else {
                                if (x[0] <= 16.113173961639404) {
                                    votes[6] += 1;
                                }

                                else {
                                    if (x[2] <= 0.0945139229297638) {
                                        if (x[6] <= -0.1478951871395111) {
                                            if (x[10] <= 1.1099999937869143e-05) {
                                                if (x[3] <= 0.08334301970899105) {
                                                    if (x[7] <= 0.04874421842396259) {
                                                        if (x[4] <= 0.24773231521248817) {
                                                            if (x[6] <= -0.26106472313404083) {
                                                                votes[1] += 1;
                                                            }

                                                            else {
                                                                votes[4] += 1;
                                                            }
                                                        }

                                                        else {
                                                            votes[5] += 1;
                                                        }
                                                    }

                                                    else {
                                                        votes[0] += 1;
                                                    }
                                                }

                                                else {
                                                    if (x[4] <= -0.3137180954217911) {
                                                        votes[0] += 1;
                                                    }

                                                    else {
                                                        if (x[6] <= -0.18865521997213364) {
                                                            votes[1] += 1;
                                                        }

                                                        else {
                                                            if (x[11] <= -0.033187881112098694) {
                                                                votes[1] += 1;
                                                            }

                                                            else {
                                                                if (x[3] <= 0.22204093635082245) {
                                                                    votes[4] += 1;
                                                                }

                                                                else {
                                                                    votes[5] += 1;
                                                                }
                                                            }
                                                        }
                                                    }
                                                }
                                            }

                                            else {
                                                votes[0] += 1;
                                            }
                                        }

                                        else {
                                            if (x[4] <= -0.2406894788146019) {
                                                if (x[0] <= 23.60989284515381) {
                                                    if (x[4] <= -0.25612931698560715) {
                                                        if (x[11] <= -0.06011920049786568) {
                                                            votes[0] += 1;
                                                        }

                                                        else {
                                                            votes[1] += 1;
                                                        }
                                                    }

                                                    else {
                                                        votes[2] += 1;
                                                    }
                                                }

                                                else {
                                                    votes[3] += 1;
                                                }
                                            }

                                            else {
                                                if (x[3] <= 0.2030564397573471) {
                                                    if (x[11] <= -0.11720919981598854) {
                                                        if (x[6] <= -0.11656757816672325) {
                                                            votes[0] += 1;
                                                        }

                                                        else {
                                                            votes[4] += 1;
                                                        }
                                                    }

                                                    else {
                                                        if (x[4] <= -0.20051990449428558) {
                                                            if (x[0] <= 20.672377586364746) {
                                                                votes[4] += 1;
                                                            }

                                                            else {
                                                                votes[1] += 1;
                                                            }
                                                        }

                                                        else {
                                                            votes[4] += 1;
                                                        }
                                                    }
                                                }

                                                else {
                                                    if (x[2] <= -0.29705794528126717) {
                                                        votes[1] += 1;
                                                    }

                                                    else {
                                                        votes[0] += 1;
                                                    }
                                                }
                                            }
                                        }
                                    }

                                    else {
                                        votes[5] += 1;
                                    }
                                }
                            }
                        }

                        else {
                            if (x[2] <= -0.7838127017021179) {
                                votes[0] += 1;
                            }

                            else {
                                votes[2] += 1;
                            }
                        }

                        // tree #10
                        if (x[7] <= 0.039384061470627785) {
                            if (x[12] <= -0.005568459862843156) {
                                if (x[0] <= 26.315568923950195) {
                                    if (x[6] <= -0.1478951871395111) {
                                        votes[1] += 1;
                                    }

                                    else {
                                        if (x[7] <= 0.020825980813242495) {
                                            votes[4] += 1;
                                        }

                                        else {
                                            votes[5] += 1;
                                        }
                                    }
                                }

                                else {
                                    votes[2] += 1;
                                }
                            }

                            else {
                                if (x[3] <= 0.2030564397573471) {
                                    if (x[4] <= -0.24896645545959473) {
                                        if (x[9] <= 0.03319613845087588) {
                                            votes[1] += 1;
                                        }

                                        else {
                                            votes[2] += 1;
                                        }
                                    }

                                    else {
                                        if (x[7] <= 0.01802694029174745) {
                                            if (x[12] <= 0.07274968177080154) {
                                                votes[4] += 1;
                                            }

                                            else {
                                                if (x[0] <= 26.182355880737305) {
                                                    if (x[2] <= -0.231175996363163) {
                                                        votes[1] += 1;
                                                    }

                                                    else {
                                                        votes[4] += 1;
                                                    }
                                                }

                                                else {
                                                    votes[1] += 1;
                                                }
                                            }
                                        }

                                        else {
                                            if (x[0] <= 27.417737007141113) {
                                                votes[1] += 1;
                                            }

                                            else {
                                                votes[0] += 1;
                                            }
                                        }
                                    }
                                }

                                else {
                                    if (x[2] <= 0.040243420749902725) {
                                        if (x[0] <= 20.346673011779785) {
                                            if (x[3] <= 0.2215018942952156) {
                                                votes[0] += 1;
                                            }

                                            else {
                                                votes[2] += 1;
                                            }
                                        }

                                        else {
                                            votes[1] += 1;
                                        }
                                    }

                                    else {
                                        if (x[11] <= 0.0035429398994892836) {
                                            votes[5] += 1;
                                        }

                                        else {
                                            votes[1] += 1;
                                        }
                                    }
                                }
                            }
                        }

                        else {
                            if (x[4] <= -0.37199734151363373) {
                                if (x[7] <= 0.08579561859369278) {
                                    votes[0] += 1;
                                }

                                else {
                                    votes[3] += 1;
                                }
                            }

                            else {
                                if (x[10] <= 7.060000143610523e-06) {
                                    votes[6] += 1;
                                }

                                else {
                                    if (x[2] <= -0.44628356397151947) {
                                        if (x[4] <= -0.23598157614469528) {
                                            if (x[8] <= -0.027787799714133143) {
                                                votes[0] += 1;
                                            }

                                            else {
                                                votes[2] += 1;
                                            }
                                        }

                                        else {
                                            votes[0] += 1;
                                        }
                                    }

                                    else {
                                        if (x[0] <= 24.8134183883667) {
                                            if (x[12] <= -0.037751579657197) {
                                                votes[0] += 1;
                                            }

                                            else {
                                                if (x[11] <= -0.018081380054354668) {
                                                    if (x[12] <= 0.030623619444668293) {
                                                        votes[1] += 1;
                                                    }

                                                    else {
                                                        votes[4] += 1;
                                                    }
                                                }

                                                else {
                                                    votes[3] += 1;
                                                }
                                            }
                                        }

                                        else {
                                            votes[5] += 1;
                                        }
                                    }
                                }
                            }
                        }

                        // tree #11
                        if (x[10] <= 7.060000143610523e-06) {
                            if (x[7] <= 0.0433895792812109) {
                                votes[4] += 1;
                            }

                            else {
                                votes[6] += 1;
                            }
                        }

                        else {
                            if (x[4] <= -0.30960068106651306) {
                                if (x[0] <= 25.972800254821777) {
                                    if (x[7] <= 0.08579561859369278) {
                                        if (x[7] <= 0.03744615986943245) {
                                            votes[2] += 1;
                                        }

                                        else {
                                            if (x[6] <= -0.07894366048276424) {
                                                votes[0] += 1;
                                            }

                                            else {
                                                votes[3] += 1;
                                            }
                                        }
                                    }

                                    else {
                                        votes[3] += 1;
                                    }
                                }

                                else {
                                    votes[2] += 1;
                                }
                            }

                            else {
                                if (x[2] <= -0.6740118861198425) {
                                    votes[0] += 1;
                                }

                                else {
                                    if (x[7] <= 0.012976039899513125) {
                                        if (x[3] <= 0.20740360021591187) {
                                            if (x[10] <= 1.1039999662898481e-05) {
                                                votes[4] += 1;
                                            }

                                            else {
                                                if (x[7] <= -0.0935196802020073) {
                                                    votes[4] += 1;
                                                }

                                                else {
                                                    votes[1] += 1;
                                                }
                                            }
                                        }

                                        else {
                                            if (x[2] <= 0.0945139229297638) {
                                                if (x[4] <= -0.20304777473211288) {
                                                    if (x[0] <= 25.022783279418945) {
                                                        votes[4] += 1;
                                                    }

                                                    else {
                                                        votes[5] += 1;
                                                    }
                                                }

                                                else {
                                                    votes[1] += 1;
                                                }
                                            }

                                            else {
                                                votes[5] += 1;
                                            }
                                        }
                                    }

                                    else {
                                        if (x[2] <= 0.09588629938662052) {
                                            if (x[10] <= 9.440000212634914e-06) {
                                                if (x[0] <= 16.889141082763672) {
                                                    votes[2] += 1;
                                                }

                                                else {
                                                    if (x[8] <= -0.027877161279320717) {
                                                        votes[4] += 1;
                                                    }

                                                    else {
                                                        if (x[0] <= 17.656328201293945) {
                                                            votes[0] += 1;
                                                        }

                                                        else {
                                                            if (x[0] <= 20.232675552368164) {
                                                                votes[3] += 1;
                                                            }

                                                            else {
                                                                votes[0] += 1;
                                                            }
                                                        }
                                                    }
                                                }
                                            }

                                            else {
                                                if (x[2] <= -0.06991477869451046) {
                                                    votes[1] += 1;
                                                }

                                                else {
                                                    votes[4] += 1;
                                                }
                                            }
                                        }

                                        else {
                                            votes[5] += 1;
                                        }
                                    }
                                }
                            }
                        }

                        // tree #12
                        if (x[7] <= 0.04409562051296234) {
                            if (x[8] <= -0.019079620018601418) {
                                if (x[2] <= -0.21318010240793228) {
                                    if (x[0] <= 16.995522499084473) {
                                        votes[4] += 1;
                                    }

                                    else {
                                        if (x[10] <= 1.159999965238967e-05) {
                                            if (x[0] <= 23.373992919921875) {
                                                if (x[12] <= 0.04987164027988911) {
                                                    votes[0] += 1;
                                                }

                                                else {
                                                    votes[1] += 1;
                                                }
                                            }

                                            else {
                                                votes[1] += 1;
                                            }
                                        }

                                        else {
                                            votes[0] += 1;
                                        }
                                    }
                                }

                                else {
                                    if (x[2] <= 0.1857493817806244) {
                                        if (x[3] <= 0.2030564397573471) {
                                            votes[4] += 1;
                                        }

                                        else {
                                            if (x[5] <= -0.04595090076327324) {
                                                votes[1] += 1;
                                            }

                                            else {
                                                if (x[3] <= 0.371054083108902) {
                                                    votes[0] += 1;
                                                }

                                                else {
                                                    votes[5] += 1;
                                                }
                                            }
                                        }
                                    }

                                    else {
                                        if (x[4] <= -0.06205243803560734) {
                                            votes[1] += 1;
                                        }

                                        else {
                                            votes[5] += 1;
                                        }
                                    }
                                }
                            }

                            else {
                                if (x[1] <= -0.4141654223203659) {
                                    if (x[4] <= -0.3104707598686218) {
                                        votes[2] += 1;
                                    }

                                    else {
                                        if (x[8] <= 0.0010903996881097555) {
                                            votes[2] += 1;
                                        }

                                        else {
                                            votes[1] += 1;
                                        }
                                    }
                                }

                                else {
                                    if (x[0] <= 24.424296379089355) {
                                        votes[1] += 1;
                                    }

                                    else {
                                        if (x[12] <= -0.04463893920183182) {
                                            votes[2] += 1;
                                        }

                                        else {
                                            if (x[11] <= -0.0625170785933733) {
                                                votes[4] += 1;
                                            }

                                            else {
                                                votes[5] += 1;
                                            }
                                        }
                                    }
                                }
                            }
                        }

                        else {
                            if (x[4] <= -0.24723640829324722) {
                                if (x[11] <= -0.06871462054550648) {
                                    votes[0] += 1;
                                }

                                else {
                                    if (x[3] <= 0.20671970397233963) {
                                        votes[3] += 1;
                                    }

                                    else {
                                        if (x[4] <= -0.38502058386802673) {
                                            votes[3] += 1;
                                        }

                                        else {
                                            votes[1] += 1;
                                        }
                                    }
                                }
                            }

                            else {
                                if (x[11] <= -0.1396084576845169) {
                                    votes[0] += 1;
                                }

                                else {
                                    if (x[3] <= 0.022852540016174316) {
                                        if (x[4] <= 0.11979207396507263) {
                                            votes[1] += 1;
                                        }

                                        else {
                                            votes[5] += 1;
                                        }
                                    }

                                    else {
                                        if (x[9] <= 0.12267538532614708) {
                                            votes[6] += 1;
                                        }

                                        else {
                                            votes[5] += 1;
                                        }
                                    }
                                }
                            }
                        }

                        // tree #13
                        if (x[10] <= 1.1220000033063116e-05) {
                            if (x[1] <= -0.17165295779705048) {
                                if (x[4] <= -0.33440737426280975) {
                                    votes[3] += 1;
                                }

                                else {
                                    if (x[5] <= 0.08837055787444115) {
                                        if (x[2] <= -0.44628356397151947) {
                                            if (x[5] <= -0.0032105601858347654) {
                                                votes[0] += 1;
                                            }

                                            else {
                                                votes[1] += 1;
                                            }
                                        }

                                        else {
                                            if (x[5] <= -0.03118056058883667) {
                                                if (x[5] <= -0.10477345809340477) {
                                                    if (x[5] <= -0.11313549801707268) {
                                                        votes[1] += 1;
                                                    }

                                                    else {
                                                        votes[4] += 1;
                                                    }
                                                }

                                                else {
                                                    votes[1] += 1;
                                                }
                                            }

                                            else {
                                                if (x[12] <= 0.05582371912896633) {
                                                    if (x[6] <= -0.03916520066559315) {
                                                        if (x[3] <= 0.0963628813624382) {
                                                            votes[4] += 1;
                                                        }

                                                        else {
                                                            votes[1] += 1;
                                                        }
                                                    }

                                                    else {
                                                        if (x[6] <= -0.002903539687395096) {
                                                            votes[3] += 1;
                                                        }

                                                        else {
                                                            votes[4] += 1;
                                                        }
                                                    }
                                                }

                                                else {
                                                    votes[5] += 1;
                                                }
                                            }
                                        }
                                    }

                                    else {
                                        if (x[7] <= 0.06064733862876892) {
                                            if (x[1] <= -0.7230395674705505) {
                                                votes[1] += 1;
                                            }

                                            else {
                                                if (x[11] <= -0.09103460051119328) {
                                                    votes[5] += 1;
                                                }

                                                else {
                                                    if (x[6] <= 0.012555999681353569) {
                                                        if (x[6] <= -0.01154369954019785) {
                                                            votes[2] += 1;
                                                        }

                                                        else {
                                                            votes[4] += 1;
                                                        }
                                                    }

                                                    else {
                                                        votes[0] += 1;
                                                    }
                                                }
                                            }
                                        }

                                        else {
                                            votes[6] += 1;
                                        }
                                    }
                                }
                            }

                            else {
                                if (x[6] <= -0.19578257948160172) {
                                    votes[5] += 1;
                                }

                                else {
                                    if (x[8] <= -0.015711600426584482) {
                                        if (x[8] <= -0.11112120002508163) {
                                            votes[1] += 1;
                                        }

                                        else {
                                            votes[4] += 1;
                                        }
                                    }

                                    else {
                                        if (x[0] <= 25.288716316223145) {
                                            if (x[7] <= 0.05740949884057045) {
                                                votes[1] += 1;
                                            }

                                            else {
                                                votes[3] += 1;
                                            }
                                        }

                                        else {
                                            if (x[11] <= -0.14013168215751648) {
                                                votes[4] += 1;
                                            }

                                            else {
                                                votes[5] += 1;
                                            }
                                        }
                                    }
                                }
                            }
                        }

                        else {
                            if (x[7] <= 0.015933619812130928) {
                                votes[2] += 1;
                            }

                            else {
                                votes[0] += 1;
                            }
                        }

                        // tree #14
                        if (x[4] <= -0.3290940821170807) {
                            if (x[0] <= 26.385157585144043) {
                                if (x[7] <= 0.08579561859369278) {
                                    if (x[4] <= -0.3595159351825714) {
                                        votes[0] += 1;
                                    }

                                    else {
                                        votes[2] += 1;
                                    }
                                }

                                else {
                                    votes[3] += 1;
                                }
                            }

                            else {
                                votes[2] += 1;
                            }
                        }

                        else {
                            if (x[1] <= -0.7782309949398041) {
                                if (x[5] <= 0.05706257838755846) {
                                    votes[0] += 1;
                                }

                                else {
                                    if (x[7] <= 0.07937410101294518) {
                                        votes[1] += 1;
                                    }

                                    else {
                                        votes[0] += 1;
                                    }
                                }
                            }

                            else {
                                if (x[2] <= -0.4326539933681488) {
                                    if (x[10] <= 6.83999996908824e-06) {
                                        votes[6] += 1;
                                    }

                                    else {
                                        if (x[11] <= -0.09468286111950874) {
                                            votes[0] += 1;
                                        }

                                        else {
                                            if (x[1] <= -0.7230395674705505) {
                                                if (x[3] <= 0.09766842424869537) {
                                                    votes[1] += 1;
                                                }

                                                else {
                                                    votes[6] += 1;
                                                }
                                            }

                                            else {
                                                if (x[9] <= 0.035962220281362534) {
                                                    votes[2] += 1;
                                                }

                                                else {
                                                    votes[4] += 1;
                                                }
                                            }
                                        }
                                    }
                                }

                                else {
                                    if (x[12] <= 0.07838765904307365) {
                                        if (x[7] <= 0.016859460389241576) {
                                            if (x[6] <= -0.20697274059057236) {
                                                votes[1] += 1;
                                            }

                                            else {
                                                if (x[0] <= 21.028459548950195) {
                                                    if (x[3] <= 0.20299873501062393) {
                                                        votes[4] += 1;
                                                    }

                                                    else {
                                                        votes[0] += 1;
                                                    }
                                                }

                                                else {
                                                    votes[4] += 1;
                                                }
                                            }
                                        }

                                        else {
                                            if (x[8] <= -0.02578086033463478) {
                                                if (x[5] <= -0.0261949198320508) {
                                                    votes[1] += 1;
                                                }

                                                else {
                                                    votes[4] += 1;
                                                }
                                            }

                                            else {
                                                if (x[4] <= -0.2893524616956711) {
                                                    votes[1] += 1;
                                                }

                                                else {
                                                    if (x[0] <= 22.65315341949463) {
                                                        if (x[4] <= -0.2587054520845413) {
                                                            votes[3] += 1;
                                                        }

                                                        else {
                                                            if (x[4] <= -0.14921939745545387) {
                                                                votes[0] += 1;
                                                            }

                                                            else {
                                                                votes[6] += 1;
                                                            }
                                                        }
                                                    }

                                                    else {
                                                        votes[5] += 1;
                                                    }
                                                }
                                            }
                                        }
                                    }

                                    else {
                                        if (x[8] <= -0.19229315966367722) {
                                            votes[1] += 1;
                                        }

                                        else {
                                            if (x[6] <= -0.13968110084533691) {
                                                if (x[11] <= 0.004107760032638907) {
                                                    if (x[11] <= -0.06512174010276794) {
                                                        if (x[4] <= 0.16745669394731522) {
                                                            votes[1] += 1;
                                                        }

                                                        else {
                                                            votes[5] += 1;
                                                        }
                                                    }

                                                    else {
                                                        votes[5] += 1;
                                                    }
                                                }

                                                else {
                                                    votes[1] += 1;
                                                }
                                            }

                                            else {
                                                votes[4] += 1;
                                            }
                                        }
                                    }
                                }
                            }
                        }

                        // tree #15
                        if (x[7] <= 0.059945760294795036) {
                            if (x[6] <= -0.028270980343222618) {
                                if (x[3] <= 0.1306535229086876) {
                                    if (x[3] <= -0.18073055893182755) {
                                        if (x[8] <= 0.05650467984378338) {
                                            votes[0] += 1;
                                        }

                                        else {
                                            votes[2] += 1;
                                        }
                                    }

                                    else {
                                        if (x[7] <= 0.020715799881145358) {
                                            votes[4] += 1;
                                        }

                                        else {
                                            if (x[12] <= 0.047916019801050425) {
                                                votes[0] += 1;
                                            }

                                            else {
                                                if (x[3] <= -0.05780468136072159) {
                                                    votes[5] += 1;
                                                }

                                                else {
                                                    votes[1] += 1;
                                                }
                                            }
                                        }
                                    }
                                }

                                else {
                                    if (x[2] <= 0.10131022334098816) {
                                        if (x[11] <= -0.03408634103834629) {
                                            votes[1] += 1;
                                        }

                                        else {
                                            if (x[7] <= -0.10733535885810852) {
                                                votes[1] += 1;
                                            }

                                            else {
                                                if (x[6] <= -0.22416221350431442) {
                                                    votes[1] += 1;
                                                }

                                                else {
                                                    votes[4] += 1;
                                                }
                                            }
